。 0.003036 0.000906 -0.001471 -0.009049 0.002760 -0.004928 0.004026 0.005855 0.006684 -0.003503 0.001315 -0.002203 0.006703 0.004199 0.000469 -0.001800 0.000928 -0.004979 0.001197 0.007694 -0.000536 -0.001642 -0.006101 -0.007887 0.000297 0.002299 -0.004986 -0.000689 0.000507 0.008580 -0.001463 -0.005062 -0.002957 -0.006119 0.002774 0.005518 -0.005452 -0.003202 -0.000965 0.000783 0.003249 -0.002186 -0.005860 -0.001432 0.004255 0.000691 -0.003902 -0.003925 -0.000546 0.005012 -0.003237 0.001441 -0.009018 -0.000830 0.004239 -0.002074 0.004611 -0.003382 -0.004861 0.001621 -0.000957 0.008057 -0.003002 0.000707 -0.003166 -0.008817 0.004041 0.002064 -0.001258 0.003392 0.001897 -0.001241 -0.000600 -0.001302 -0.006523 0.003803 -0.000517 -0.004875 0.009238 -0.001677 -0.002964 -0.000363 -0.007162 -0.006944 0.002384 -0.000078 -0.004858 0.006740 -0.006568 0.007735 0.006850 -0.002042 -0.001783 -0.002290 -0.006777 0.005509 0.002304 0.007044 -0.002175 0.000490
无 0.002492 -0.002265 0.004324 0.004286 0.001568 -0.000050 0.000163 -0.004221 -0.002539 -0.008749 -0.003393 0.002181 -0.003851 -0.003898 -0.005005 0.000713 -0.000450 0.000472 -0.002226 -0.001058 -0.004747 -0.009455 -0.007412 0.005568 0.006173 -0.003428 0.003024 0.007032 -0.003526 0.003731 0.002957 0.002873 0.005633 0.000993 -0.004350 -0.009334 -0.002617 0.000962 -0.003165 -0.002902 0.002271 -0.001918 -0.002088 0.004459 0.006875 -0.002961 -0.002124 -0.001126 0.005516 0.001997 -0.005311 -0.004955 -0.000550 -0.002256 0.006998 -0.004720 0.003095 -0.004749 0.000343 -0.000886 0.003507 -0.002245 -0.002168 -0.002122 -0.000237 0.003021 -0.000308 0.001511 -0.001626 0.005775 -0.001699 -0.003860 -0.000783 0.005861 0.000436 -0.002031 0.004596 0.003466 -0.007185 -0.002829 -0.001433 -0.000652 0.004356 0.004342 0.005617 0.005070 0.002803 0.004700 -0.000793 0.000436 -0.005397 -0.002741 -0.006147 -0.003207 -0.000613 -0.002866 -0.001027 0.003113 0.002547 0.000603
